digraph Tree {
node [shape=box] ;
0 [label="Recency <= 8.5\ngini = 0.342\nsamples = 561\nvalue = [438, 123]"] ;
1 [label="Time <= 1125.0\ngini = 0.453\nsamples = 282\nvalue = [184, 98]"] ;
0 -> 1 [labeldistance=2.5, labelangle=45, headlabel="True"] ;
2 [label="gini = 0.386\nsamples = 134\nvalue = [99, 35]"] ;
1 -> 2 ;
3 [label="Monetary <= 49.0\ngini = 0.489\nsamples = 148\nvalue = [85, 63]"] ;
1 -> 3 ;
4 [label="Frequency <= 15.0\ngini = 0.49\nsamples = 84\nvalue = [36, 48]"] ;
3 -> 4 ;
5 [label="gini = 0.496\nsamples = 79\nvalue = [36, 43]"] ;
4 -> 5 ;
6 [label="gini = 0.0\nsamples = 5\nvalue = [0, 5]"] ;
4 -> 6 ;
7 [label="Monetary <= 96.5\ngini = 0.359\nsamples = 64\nvalue = [49, 15]"] ;
3 -> 7 ;
8 [label="Frequency <= 12.5\ngini = 0.324\nsamples = 59\nvalue = [47, 12]"] ;
7 -> 8 ;
9 [label="gini = 0.245\nsamples = 42\nvalue = [36, 6]"] ;
8 -> 9 ;
10 [label="Monetary <= 76.5\ngini = 0.457\nsamples = 17\nvalue = [11, 6]"] ;
8 -> 10 ;
11 [label="gini = 0.48\nsamples = 10\nvalue = [4, 6]"] ;
10 -> 11 ;
12 [label="gini = 0.0\nsamples = 7\nvalue = [7, 0]"] ;
10 -> 12 ;
13 [label="gini = 0.48\nsamples = 5\nvalue = [2, 3]"] ;
7 -> 13 ;
14 [label="Recency <= 24.5\ngini = 0.163\nsamples = 279\nvalue = [254, 25]"] ;
0 -> 14 [labeldistance=2.5, labelangle=-45, headlabel="False"] ;
15 [label="gini = 0.158\nsamples = 278\nvalue = [254, 24]"] ;
14 -> 15 ;
16 [label="gini = 0.0\nsamples = 1\nvalue = [0, 1]"] ;
14 -> 16 ;
}