digraph Tree {
node [shape=box] ;
0 [label="Recency <= 4.5\ngini = 0.369\nsamples = 599\nvalue = [453, 146]"] ;
1 [label="Frequency <= 4.5\ngini = 0.473\nsamples = 286\nvalue = [176, 110]"] ;
0 -> 1 [labeldistance=2.5, labelangle=45, headlabel="True"] ;
2 [label="Time <= 2.5\ngini = 0.378\nsamples = 146\nvalue = [109, 37]"] ;
1 -> 2 ;
3 [label="gini = 0.245\nsamples = 28\nvalue = [24, 4]"] ;
2 -> 3 ;
4 [label="Time <= 15.0\ngini = 0.403\nsamples = 118\nvalue = [85, 33]"] ;
2 -> 4 ;
5 [label="Recency <= 3.5\ngini = 0.454\nsamples = 69\nvalue = [45, 24]"] ;
4 -> 5 ;
6 [label="Recency <= 1.0\ngini = 0.5\nsamples = 26\nvalue = [13, 13]"] ;
5 -> 6 ;
7 [label="gini = 0.0\nsamples = 2\nvalue = [2, 0]"] ;
6 -> 7 ;
8 [label="Time <= 9.5\ngini = 0.497\nsamples = 24\nvalue = [11, 13]"] ;
6 -> 8 ;
9 [label="gini = 0.346\nsamples = 9\nvalue = [2, 7]"] ;
8 -> 9 ;
10 [label="Monetary <= 875.0\ngini = 0.48\nsamples = 15\nvalue = [9, 6]"] ;
8 -> 10 ;
11 [label="Time <= 12.5\ngini = 0.444\nsamples = 12\nvalue = [8, 4]"] ;
10 -> 11 ;
12 [label="gini = 0.494\nsamples = 9\nvalue = [5, 4]"] ;
11 -> 12 ;
13 [label="gini = 0.0\nsamples = 3\nvalue = [3, 0]"] ;
11 -> 13 ;
14 [label="Time <= 12.5\ngini = 0.444\nsamples = 3\nvalue = [1, 2]"] ;
10 -> 14 ;
15 [label="gini = 0.0\nsamples = 1\nvalue = [1, 0]"] ;
14 -> 15 ;
16 [label="gini = 0.0\nsamples = 2\nvalue = [0, 2]"] ;
14 -> 16 ;
17 [label="Monetary <= 750.0\ngini = 0.381\nsamples = 43\nvalue = [32, 11]"] ;
5 -> 17 ;
18 [label="gini = 0.363\nsamples = 42\nvalue = [32, 10]"] ;
17 -> 18 ;
19 [label="gini = 0.0\nsamples = 1\nvalue = [0, 1]"] ;
17 -> 19 ;
20 [label="Frequency <= 2.5\ngini = 0.3\nsamples = 49\nvalue = [40, 9]"] ;
4 -> 20 ;
21 [label="gini = 0.0\nsamples = 13\nvalue = [13, 0]"] ;
20 -> 21 ;
22 [label="Time <= 24.5\ngini = 0.375\nsamples = 36\nvalue = [27, 9]"] ;
20 -> 22 ;
23 [label="gini = 0.219\nsamples = 16\nvalue = [14, 2]"] ;
22 -> 23 ;
24 [label="Recency <= 2.5\ngini = 0.455\nsamples = 20\nvalue = [13, 7]"] ;
22 -> 24 ;
25 [label="Frequency <= 3.5\ngini = 0.32\nsamples = 10\nvalue = [8, 2]"] ;
24 -> 25 ;
26 [label="Time <= 45.0\ngini = 0.5\nsamples = 4\nvalue = [2, 2]"] ;
25 -> 26 ;
27 [label="gini = 0.0\nsamples = 1\nvalue = [0, 1]"] ;
26 -> 27 ;
28 [label="Time <= 63.5\ngini = 0.444\nsamples = 3\nvalue = [2, 1]"] ;
26 -> 28 ;
29 [label="gini = 0.0\nsamples = 1\nvalue = [1, 0]"] ;
28 -> 29 ;
30 [label="Time <= 76.0\ngini = 0.5\nsamples = 2\nvalue = [1, 1]"] ;
28 -> 30 ;
31 [label="gini = 0.0\nsamples = 1\nvalue = [0, 1]"] ;
30 -> 31 ;
32 [label="gini = 0.0\nsamples = 1\nvalue = [1, 0]"] ;
30 -> 32 ;
33 [label="gini = 0.0\nsamples = 6\nvalue = [6, 0]"] ;
25 -> 33 ;
34 [label="Time <= 27.0\ngini = 0.5\nsamples = 10\nvalue = [5, 5]"] ;
24 -> 34 ;
35 [label="gini = 0.0\nsamples = 2\nvalue = [0, 2]"] ;
34 -> 35 ;
36 [label="Monetary <= 875.0\ngini = 0.469\nsamples = 8\nvalue = [5, 3]"] ;
34 -> 36 ;
37 [label="gini = 0.0\nsamples = 3\nvalue = [3, 0]"] ;
36 -> 37 ;
38 [label="Time <= 37.5\ngini = 0.48\nsamples = 5\nvalue = [2, 3]"] ;
36 -> 38 ;
39 [label="gini = 0.0\nsamples = 2\nvalue = [0, 2]"] ;
38 -> 39 ;
40 [label="Time <= 42.0\ngini = 0.444\nsamples = 3\nvalue = [2, 1]"] ;
38 -> 40 ;
41 [label="gini = 0.0\nsamples = 1\nvalue = [1, 0]"] ;
40 -> 41 ;
42 [label="Time <= 44.5\ngini = 0.5\nsamples = 2\nvalue = [1, 1]"] ;
40 -> 42 ;
43 [label="gini = 0.0\nsamples = 1\nvalue = [0, 1]"] ;
42 -> 43 ;
44 [label="gini = 0.0\nsamples = 1\nvalue = [1, 0]"] ;
42 -> 44 ;
45 [label="Time <= 45.5\ngini = 0.499\nsamples = 140\nvalue = [67, 73]"] ;
1 -> 45 ;
46 [label="Time <= 22.5\ngini = 0.439\nsamples = 80\nvalue = [26, 54]"] ;
45 -> 46 ;
47 [label="gini = 0.255\nsamples = 20\nvalue = [3, 17]"] ;
46 -> 47 ;
48 [label="Time <= 31.0\ngini = 0.473\nsamples = 60\nvalue = [23, 37]"] ;
46 -> 48 ;
49 [label="Time <= 28.5\ngini = 0.499\nsamples = 27\nvalue = [14, 13]"] ;
48 -> 49 ;
50 [label="Frequency <= 10.5\ngini = 0.499\nsamples = 25\nvalue = [12, 13]"] ;
49 -> 50 ;
51 [label="Frequency <= 5.5\ngini = 0.48\nsamples = 20\nvalue = [8, 12]"] ;
50 -> 51 ;
52 [label="Recency <= 3.0\ngini = 0.444\nsamples = 6\nvalue = [4, 2]"] ;
51 -> 52 ;
53 [label="gini = 0.0\nsamples = 2\nvalue = [2, 0]"] ;
52 -> 53 ;
54 [label="Time <= 27.0\ngini = 0.5\nsamples = 4\nvalue = [2, 2]"] ;
52 -> 54 ;
55 [label="gini = 0.444\nsamples = 3\nvalue = [1, 2]"] ;
54 -> 55 ;
56 [label="gini = 0.0\nsamples = 1\nvalue = [1, 0]"] ;
54 -> 56 ;
57 [label="Recency <= 3.0\ngini = 0.408\nsamples = 14\nvalue = [4, 10]"] ;
51 -> 57 ;
58 [label="gini = 0.245\nsamples = 7\nvalue = [1, 6]"] ;
57 -> 58 ;
59 [label="Monetary <= 2125.0\ngini = 0.49\nsamples = 7\nvalue = [3, 4]"] ;
57 -> 59 ;
60 [label="Monetary <= 1625.0\ngini = 0.444\nsamples = 3\nvalue = [2, 1]"] ;
59 -> 60 ;
61 [label="gini = 0.0\nsamples = 1\nvalue = [0, 1]"] ;
60 -> 61 ;
62 [label="gini = 0.0\nsamples = 2\nvalue = [2, 0]"] ;
60 -> 62 ;
63 [label="gini = 0.375\nsamples = 4\nvalue = [1, 3]"] ;
59 -> 63 ;
64 [label="Monetary <= 3000.0\ngini = 0.32\nsamples = 5\nvalue = [4, 1]"] ;
50 -> 64 ;
65 [label="gini = 0.0\nsamples = 4\nvalue = [4, 0]"] ;
64 -> 65 ;
66 [label="gini = 0.0\nsamples = 1\nvalue = [0, 1]"] ;
64 -> 66 ;
67 [label="gini = 0.0\nsamples = 2\nvalue = [2, 0]"] ;
49 -> 67 ;
68 [label="Time <= 33.5\ngini = 0.397\nsamples = 33\nvalue = [9, 24]"] ;
48 -> 68 ;
69 [label="gini = 0.0\nsamples = 5\nvalue = [0, 5]"] ;
68 -> 69 ;
70 [label="Frequency <= 5.5\ngini = 0.436\nsamples = 28\nvalue = [9, 19]"] ;
68 -> 70 ;
71 [label="Recency <= 3.5\ngini = 0.375\nsamples = 4\nvalue = [3, 1]"] ;
70 -> 71 ;
72 [label="gini = 0.0\nsamples = 2\nvalue = [2, 0]"] ;
71 -> 72 ;
73 [label="Time <= 34.5\ngini = 0.5\nsamples = 2\nvalue = [1, 1]"] ;
71 -> 73 ;
74 [label="gini = 0.0\nsamples = 1\nvalue = [1, 0]"] ;
73 -> 74 ;
75 [label="gini = 0.0\nsamples = 1\nvalue = [0, 1]"] ;
73 -> 75 ;
76 [label="Frequency <= 15.0\ngini = 0.375\nsamples = 24\nvalue = [6, 18]"] ;
70 -> 76 ;
77 [label="Frequency <= 13.5\ngini = 0.42\nsamples = 20\nvalue = [6, 14]"] ;
76 -> 77 ;
78 [label="Time <= 44.0\ngini = 0.346\nsamples = 18\nvalue = [4, 14]"] ;
77 -> 78 ;
79 [label="Monetary <= 2375.0\ngini = 0.291\nsamples = 17\nvalue = [3, 14]"] ;
78 -> 79 ;
80 [label="Frequency <= 8.5\ngini = 0.355\nsamples = 13\nvalue = [3, 10]"] ;
79 -> 80 ;
81 [label="gini = 0.18\nsamples = 10\nvalue = [1, 9]"] ;
80 -> 81 ;
82 [label="Recency <= 3.0\ngini = 0.444\nsamples = 3\nvalue = [2, 1]"] ;
80 -> 82 ;
83 [label="gini = 0.0\nsamples = 1\nvalue = [1, 0]"] ;
82 -> 83 ;
84 [label="Time <= 39.0\ngini = 0.5\nsamples = 2\nvalue = [1, 1]"] ;
82 -> 84 ;
85 [label="gini = 0.0\nsamples = 1\nvalue = [0, 1]"] ;
84 -> 85 ;
86 [label="gini = 0.0\nsamples = 1\nvalue = [1, 0]"] ;
84 -> 86 ;
87 [label="gini = 0.0\nsamples = 4\nvalue = [0, 4]"] ;
79 -> 87 ;
88 [label="gini = 0.0\nsamples = 1\nvalue = [1, 0]"] ;
78 -> 88 ;
89 [label="gini = 0.0\nsamples = 2\nvalue = [2, 0]"] ;
77 -> 89 ;
90 [label="gini = 0.0\nsamples = 4\nvalue = [0, 4]"] ;
76 -> 90 ;
91 [label="Frequency <= 11.5\ngini = 0.433\nsamples = 60\nvalue = [41, 19]"] ;
45 -> 91 ;
92 [label="Time <= 48.5\ngini = 0.289\nsamples = 40\nvalue = [33, 7]"] ;
91 -> 92 ;
93 [label="Time <= 47.5\ngini = 0.444\nsamples = 9\nvalue = [6, 3]"] ;
92 -> 93 ;
94 [label="Recency <= 3.0\ngini = 0.375\nsamples = 8\nvalue = [6, 2]"] ;
93 -> 94 ;
95 [label="Frequency <= 5.5\ngini = 0.5\nsamples = 4\nvalue = [2, 2]"] ;
94 -> 95 ;
96 [label="gini = 0.0\nsamples = 1\nvalue = [0, 1]"] ;
95 -> 96 ;
97 [label="Time <= 46.5\ngini = 0.444\nsamples = 3\nvalue = [2, 1]"] ;
95 -> 97 ;
98 [label="Monetary <= 2250.0\ngini = 0.5\nsamples = 2\nvalue = [1, 1]"] ;
97 -> 98 ;
99 [label="gini = 0.0\nsamples = 1\nvalue = [0, 1]"] ;
98 -> 99 ;
100 [label="gini = 0.0\nsamples = 1\nvalue = [1, 0]"] ;
98 -> 100 ;
101 [label="gini = 0.0\nsamples = 1\nvalue = [1, 0]"] ;
97 -> 101 ;
102 [label="gini = 0.0\nsamples = 4\nvalue = [4, 0]"] ;
94 -> 102 ;
103 [label="gini = 0.0\nsamples = 1\nvalue = [0, 1]"] ;
93 -> 103 ;
104 [label="Time <= 84.0\ngini = 0.225\nsamples = 31\nvalue = [27, 4]"] ;
92 -> 104 ;
105 [label="gini = 0.142\nsamples = 26\nvalue = [24, 2]"] ;
104 -> 105 ;
106 [label="Frequency <= 8.257\ngini = 0.48\nsamples = 5\nvalue = [3, 2]"] ;
104 -> 106 ;
107 [label="Recency <= 3.0\ngini = 0.444\nsamples = 3\nvalue = [1, 2]"] ;
106 -> 107 ;
108 [label="Time <= 92.0\ngini = 0.5\nsamples = 2\nvalue = [1, 1]"] ;
107 -> 108 ;
109 [label="gini = 0.0\nsamples = 1\nvalue = [0, 1]"] ;
108 -> 109 ;
110 [label="gini = 0.0\nsamples = 1\nvalue = [1, 0]"] ;
108 -> 110 ;
111 [label="gini = 0.0\nsamples = 1\nvalue = [0, 1]"] ;
107 -> 111 ;
112 [label="gini = 0.0\nsamples = 2\nvalue = [2, 0]"] ;
106 -> 112 ;
113 [label="Time <= 76.5\ngini = 0.48\nsamples = 20\nvalue = [8, 12]"] ;
91 -> 113 ;
114 [label="Frequency <= 16.5\ngini = 0.375\nsamples = 16\nvalue = [4, 12]"] ;
113 -> 114 ;
115 [label="Recency <= 1.5\ngini = 0.444\nsamples = 12\nvalue = [4, 8]"] ;
114 -> 115 ;
116 [label="gini = 0.0\nsamples = 1\nvalue = [1, 0]"] ;
115 -> 116 ;
117 [label="Monetary <= 3875.0\ngini = 0.397\nsamples = 11\nvalue = [3, 8]"] ;
115 -> 117 ;
118 [label="gini = 0.219\nsamples = 8\nvalue = [1, 7]"] ;
117 -> 118 ;
119 [label="Recency <= 3.5\ngini = 0.444\nsamples = 3\nvalue = [2, 1]"] ;
117 -> 119 ;
120 [label="gini = 0.0\nsamples = 2\nvalue = [2, 0]"] ;
119 -> 120 ;
121 [label="gini = 0.0\nsamples = 1\nvalue = [0, 1]"] ;
119 -> 121 ;
122 [label="gini = 0.0\nsamples = 4\nvalue = [0, 4]"] ;
114 -> 122 ;
123 [label="gini = 0.0\nsamples = 4\nvalue = [4, 0]"] ;
113 -> 123 ;
124 [label="Recency <= 25.5\ngini = 0.204\nsamples = 313\nvalue = [277, 36]"] ;
0 -> 124 [labeldistance=2.5, labelangle=-45, headlabel="False"] ;
125 [label="Recency <= 22.5\ngini = 0.199\nsamples = 312\nvalue = [277, 35]"] ;
124 -> 125 ;
126 [label="Recency <= 21.5\ngini = 0.218\nsamples = 273\nvalue = [239, 34]"] ;
125 -> 126 ;
127 [label="Frequency <= 1.5\ngini = 0.213\nsamples = 272\nvalue = [239, 33]"] ;
126 -> 127 ;
128 [label="gini = 0.1\nsamples = 57\nvalue = [54, 3]"] ;
127 -> 128 ;
129 [label="Time <= 22.0\ngini = 0.24\nsamples = 215\nvalue = [185, 30]"] ;
127 -> 129 ;
130 [label="Time <= 18.5\ngini = 0.351\nsamples = 44\nvalue = [34, 10]"] ;
129 -> 130 ;
131 [label="Recency <= 6.5\ngini = 0.298\nsamples = 33\nvalue = [27, 6]"] ;
130 -> 131 ;
132 [label="Monetary <= 625.0\ngini = 0.5\nsamples = 2\nvalue = [1, 1]"] ;
131 -> 132 ;
133 [label="gini = 0.0\nsamples = 1\nvalue = [0, 1]"] ;
132 -> 133 ;
134 [label="gini = 0.0\nsamples = 1\nvalue = [1, 0]"] ;
132 -> 134 ;
135 [label="Frequency <= 2.5\ngini = 0.271\nsamples = 31\nvalue = [26, 5]"] ;
131 -> 135 ;
136 [label="gini = 0.172\nsamples = 21\nvalue = [19, 2]"] ;
135 -> 136 ;
137 [label="Monetary <= 1125.0\ngini = 0.42\nsamples = 10\nvalue = [7, 3]"] ;
135 -> 137 ;
138 [label="Frequency <= 3.5\ngini = 0.49\nsamples = 7\nvalue = [4, 3]"] ;
137 -> 138 ;
139 [label="Recency <= 10.0\ngini = 0.444\nsamples = 6\nvalue = [4, 2]"] ;
138 -> 139 ;
140 [label="gini = 0.0\nsamples = 1\nvalue = [1, 0]"] ;
139 -> 140 ;
141 [label="Recency <= 12.0\ngini = 0.48\nsamples = 5\nvalue = [3, 2]"] ;
139 -> 141 ;
142 [label="Time <= 15.5\ngini = 0.444\nsamples = 3\nvalue = [2, 1]"] ;
141 -> 142 ;
143 [label="gini = 0.0\nsamples = 2\nvalue = [2, 0]"] ;
142 -> 143 ;
144 [label="gini = 0.0\nsamples = 1\nvalue = [0, 1]"] ;
142 -> 144 ;
145 [label="Time <= 15.0\ngini = 0.5\nsamples = 2\nvalue = [1, 1]"] ;
141 -> 145 ;
146 [label="gini = 0.0\nsamples = 1\nvalue = [0, 1]"] ;
145 -> 146 ;
147 [label="gini = 0.0\nsamples = 1\nvalue = [1, 0]"] ;
145 -> 147 ;
148 [label="gini = 0.0\nsamples = 1\nvalue = [0, 1]"] ;
138 -> 148 ;
149 [label="gini = 0.0\nsamples = 3\nvalue = [3, 0]"] ;
137 -> 149 ;
150 [label="Recency <= 13.5\ngini = 0.463\nsamples = 11\nvalue = [7, 4]"] ;
130 -> 150 ;
151 [label="gini = 0.0\nsamples = 4\nvalue = [4, 0]"] ;
150 -> 151 ;
152 [label="gini = 0.49\nsamples = 7\nvalue = [3, 4]"] ;
150 -> 152 ;
153 [label="Monetary <= 875.0\ngini = 0.207\nsamples = 171\nvalue = [151, 20]"] ;
129 -> 153 ;
154 [label="Time <= 39.0\ngini = 0.111\nsamples = 51\nvalue = [48, 3]"] ;
153 -> 154 ;
155 [label="Time <= 37.5\ngini = 0.161\nsamples = 34\nvalue = [31, 3]"] ;
154 -> 155 ;
156 [label="gini = 0.121\nsamples = 31\nvalue = [29, 2]"] ;
155 -> 156 ;
157 [label="Frequency <= 2.5\ngini = 0.444\nsamples = 3\nvalue = [2, 1]"] ;
155 -> 157 ;
158 [label="gini = 0.0\nsamples = 1\nvalue = [0, 1]"] ;
157 -> 158 ;
159 [label="gini = 0.0\nsamples = 2\nvalue = [2, 0]"] ;
157 -> 159 ;
160 [label="gini = 0.0\nsamples = 17\nvalue = [17, 0]"] ;
154 -> 160 ;
161 [label="Monetary <= 3625.0\ngini = 0.243\nsamples = 120\nvalue = [103, 17]"] ;
153 -> 161 ;
162 [label="Time <= 24.5\ngini = 0.269\nsamples = 106\nvalue = [89, 17]"] ;
161 -> 162 ;
163 [label="Monetary <= 1875.0\ngini = 0.5\nsamples = 2\nvalue = [1, 1]"] ;
162 -> 163 ;
164 [label="gini = 0.0\nsamples = 1\nvalue = [0, 1]"] ;
163 -> 164 ;
165 [label="gini = 0.0\nsamples = 1\nvalue = [1, 0]"] ;
163 -> 165 ;
166 [label="Frequency <= 4.5\ngini = 0.26\nsamples = 104\nvalue = [88, 16]"] ;
162 -> 166 ;
167 [label="gini = 0.117\nsamples = 16\nvalue = [15, 1]"] ;
166 -> 167 ;
168 [label="Time <= 48.5\ngini = 0.283\nsamples = 88\nvalue = [73, 15]"] ;
166 -> 168 ;
169 [label="Recency <= 6.0\ngini = 0.227\nsamples = 46\nvalue = [40, 6]"] ;
168 -> 169 ;
170 [label="Frequency <= 6.5\ngini = 0.5\nsamples = 2\nvalue = [1, 1]"] ;
169 -> 170 ;
171 [label="gini = 0.0\nsamples = 1\nvalue = [1, 0]"] ;
170 -> 171 ;
172 [label="gini = 0.0\nsamples = 1\nvalue = [0, 1]"] ;
170 -> 172 ;
173 [label="Monetary <= 1625.0\ngini = 0.201\nsamples = 44\nvalue = [39, 5]"] ;
169 -> 173 ;
174 [label="Recency <= 15.5\ngini = 0.332\nsamples = 19\nvalue = [15, 4]"] ;
173 -> 174 ;
175 [label="gini = 0.231\nsamples = 15\nvalue = [13, 2]"] ;
174 -> 175 ;
176 [label="Time <= 31.0\ngini = 0.5\nsamples = 4\nvalue = [2, 2]"] ;
174 -> 176 ;
177 [label="gini = 0.0\nsamples = 1\nvalue = [1, 0]"] ;
176 -> 177 ;
178 [label="Monetary <= 1375.0\ngini = 0.444\nsamples = 3\nvalue = [1, 2]"] ;
176 -> 178 ;
179 [label="gini = 0.0\nsamples = 1\nvalue = [0, 1]"] ;
178 -> 179 ;
180 [label="Time <= 37.5\ngini = 0.5\nsamples = 2\nvalue = [1, 1]"] ;
178 -> 180 ;
181 [label="gini = 0.0\nsamples = 1\nvalue = [0, 1]"] ;
180 -> 181 ;
182 [label="gini = 0.0\nsamples = 1\nvalue = [1, 0]"] ;
180 -> 182 ;
183 [label="Recency <= 9.5\ngini = 0.077\nsamples = 25\nvalue = [24, 1]"] ;
173 -> 183 ;
184 [label="Frequency <= 8.5\ngini = 0.32\nsamples = 5\nvalue = [4, 1]"] ;
183 -> 184 ;
185 [label="gini = 0.0\nsamples = 1\nvalue = [0, 1]"] ;
184 -> 185 ;
186 [label="gini = 0.0\nsamples = 4\nvalue = [4, 0]"] ;
184 -> 186 ;
187 [label="gini = 0.0\nsamples = 20\nvalue = [20, 0]"] ;
183 -> 187 ;
188 [label="Time <= 54.5\ngini = 0.337\nsamples = 42\nvalue = [33, 9]"] ;
168 -> 188 ;
189 [label="Recency <= 8.0\ngini = 0.49\nsamples = 7\nvalue = [3, 4]"] ;
188 -> 189 ;
190 [label="gini = 0.0\nsamples = 1\nvalue = [1, 0]"] ;
189 -> 190 ;
191 [label="Recency <= 12.5\ngini = 0.444\nsamples = 6\nvalue = [2, 4]"] ;
189 -> 191 ;
192 [label="gini = 0.0\nsamples = 3\nvalue = [0, 3]"] ;
191 -> 192 ;
193 [label="gini = 0.444\nsamples = 3\nvalue = [2, 1]"] ;
191 -> 193 ;
194 [label="Frequency <= 6.5\ngini = 0.245\nsamples = 35\nvalue = [30, 5]"] ;
188 -> 194 ;
195 [label="gini = 0.0\nsamples = 7\nvalue = [7, 0]"] ;
194 -> 195 ;
196 [label="Recency <= 9.5\ngini = 0.293\nsamples = 28\nvalue = [23, 5]"] ;
194 -> 196 ;
197 [label="gini = 0.0\nsamples = 6\nvalue = [6, 0]"] ;
196 -> 197 ;
198 [label="Recency <= 11.5\ngini = 0.351\nsamples = 22\nvalue = [17, 5]"] ;
196 -> 198 ;
199 [label="Monetary <= 3250.0\ngini = 0.49\nsamples = 7\nvalue = [4, 3]"] ;
198 -> 199 ;
200 [label="Frequency <= 10.5\ngini = 0.444\nsamples = 6\nvalue = [4, 2]"] ;
199 -> 200 ;
201 [label="Frequency <= 8.5\ngini = 0.48\nsamples = 5\nvalue = [3, 2]"] ;
200 -> 201 ;
202 [label="Time <= 63.0\ngini = 0.375\nsamples = 4\nvalue = [3, 1]"] ;
201 -> 202 ;
203 [label="gini = 0.0\nsamples = 1\nvalue = [0, 1]"] ;
202 -> 203 ;
204 [label="gini = 0.0\nsamples = 3\nvalue = [3, 0]"] ;
202 -> 204 ;
205 [label="gini = 0.0\nsamples = 1\nvalue = [0, 1]"] ;
201 -> 205 ;
206 [label="gini = 0.0\nsamples = 1\nvalue = [1, 0]"] ;
200 -> 206 ;
207 [label="gini = 0.0\nsamples = 1\nvalue = [0, 1]"] ;
199 -> 207 ;
208 [label="Recency <= 16.5\ngini = 0.231\nsamples = 15\nvalue = [13, 2]"] ;
198 -> 208 ;
209 [label="Time <= 85.0\ngini = 0.142\nsamples = 13\nvalue = [12, 1]"] ;
208 -> 209 ;
210 [label="gini = 0.0\nsamples = 10\nvalue = [10, 0]"] ;
209 -> 210 ;
211 [label="Time <= 88.0\ngini = 0.444\nsamples = 3\nvalue = [2, 1]"] ;
209 -> 211 ;
212 [label="gini = 0.0\nsamples = 1\nvalue = [0, 1]"] ;
211 -> 212 ;
213 [label="gini = 0.0\nsamples = 2\nvalue = [2, 0]"] ;
211 -> 213 ;
214 [label="Monetary <= 2500.0\ngini = 0.5\nsamples = 2\nvalue = [1, 1]"] ;
208 -> 214 ;
215 [label="gini = 0.0\nsamples = 1\nvalue = [0, 1]"] ;
214 -> 215 ;
216 [label="gini = 0.0\nsamples = 1\nvalue = [1, 0]"] ;
214 -> 216 ;
217 [label="gini = 0.0\nsamples = 14\nvalue = [14, 0]"] ;
161 -> 217 ;
218 [label="gini = 0.0\nsamples = 1\nvalue = [0, 1]"] ;
126 -> 218 ;
219 [label="gini = 0.05\nsamples = 39\nvalue = [38, 1]"] ;
125 -> 219 ;
220 [label="gini = 0.0\nsamples = 1\nvalue = [0, 1]"] ;
124 -> 220 ;
}