digraph Tree {
node [shape=box] ;
0 [label="Recency <= 6.5\ngini = 0.356\nsamples = 561\nvalue = [431, 130]"] ;
1 [label="Frequency <= 4.5\ngini = 0.463\nsamples = 267\nvalue = [170, 97]"] ;
0 -> 1 [labeldistance=2.5, labelangle=45, headlabel="True"] ;
2 [label="Time <= 17.0\ngini = 0.354\nsamples = 122\nvalue = [94, 28]"] ;
1 -> 2 ;
3 [label="Monetary <= 375.0\ngini = 0.394\nsamples = 89\nvalue = [65, 24]"] ;
2 -> 3 ;
4 [label="gini = 0.278\nsamples = 48\nvalue = [40, 8]"] ;
3 -> 4 ;
5 [label="gini = 0.476\nsamples = 41\nvalue = [25, 16]"] ;
3 -> 5 ;
6 [label="gini = 0.213\nsamples = 33\nvalue = [29, 4]"] ;
2 -> 6 ;
7 [label="Time <= 49.5\ngini = 0.499\nsamples = 145\nvalue = [76, 69]"] ;
1 -> 7 ;
8 [label="Frequency <= 15.0\ngini = 0.483\nsamples = 88\nvalue = [36, 52]"] ;
7 -> 8 ;
9 [label="gini = 0.491\nsamples = 83\nvalue = [36, 47]"] ;
8 -> 9 ;
10 [label="gini = 0.0\nsamples = 5\nvalue = [0, 5]"] ;
8 -> 10 ;
11 [label="Time <= 96.5\ngini = 0.419\nsamples = 57\nvalue = [40, 17]"] ;
7 -> 11 ;
12 [label="gini = 0.365\nsamples = 50\nvalue = [38, 12]"] ;
11 -> 12 ;
13 [label="gini = 0.408\nsamples = 7\nvalue = [2, 5]"] ;
11 -> 13 ;
14 [label="gini = 0.199\nsamples = 294\nvalue = [261, 33]"] ;
0 -> 14 [labeldistance=2.5, labelangle=-45, headlabel="False"] ;
}